{
    "ops": [
        {
            "attrs": {}, 
            "inputs": {
                "X": [
                    "feed"
                ]
            }, 
            "outputs": {
                "Out": [
                    "pixel"
                ]
            }, 
            "type": "feed"
        }, 
        {
            "attrs": {
                "Scale_in": 1.0, 
                "Scale_in_eltwise": 1.0, 
                "Scale_out": 1.0, 
                "Scale_weights": [
                    1.0
                ], 
                "data_format": "AnyLayout", 
                "dilations": [
                    1, 
                    1
                ], 
                "exhaustive_search": false, 
                "force_fp32_output": false, 
                "fuse_relu": false, 
                "fuse_relu_before_depthwise_conv": false, 
                "fuse_residual_connection": false, 
                "groups": 1, 
                "is_test": 1, 
                "paddings": [
                    0, 
                    0
                ], 
                "strides": [
                    1, 
                    1
                ], 
                "use_cudnn": true, 
                "use_mkldnn": false, 
                "workspace_size_MB": 4096
            }, 
            "inputs": {
                "Filter": [
                    "conv2d_0.w_0"
                ], 
                "Input": [
                    "pixel"
                ]
            }, 
            "outputs": {
                "Output": [
                    "conv2d_0.tmp_0"
                ]
            }, 
            "type": "conv2d"
        }, 
        {
            "attrs": {
                "axis": 1, 
                "use_mkldnn": false, 
                "x_data_format": "", 
                "y_data_format": ""
            }, 
            "inputs": {
                "X": [
                    "conv2d_0.tmp_0"
                ], 
                "Y": [
                    "conv2d_0.b_0"
                ]
            }, 
            "outputs": {
                "Out": [
                    "conv2d_0.tmp_1"
                ]
            }, 
            "type": "elementwise_add"
        }, 
        {
            "attrs": {
                "is_test": 1, 
                "use_mkldnn": false
            }, 
            "inputs": {
                "X": [
                    "conv2d_0.tmp_1"
                ]
            }, 
            "outputs": {
                "Out": [
                    "conv2d_0.tmp_1-1"
                ]
            }, 
            "type": "relu"
        }, 
        {
            "attrs": {
                "adaptive": false, 
                "ceil_mode": false, 
                "data_format": "AnyLayout", 
                "exclusive": true, 
                "global_pooling": false, 
                "is_test": 1, 
                "ksize": [
                    2, 
                    2
                ], 
                "paddings": [
                    0, 
                    0
                ], 
                "pooling_type": "max", 
                "strides": [
                    2, 
                    2
                ], 
                "use_cudnn": true, 
                "use_mkldnn": false
            }, 
            "inputs": {
                "X": [
                    "conv2d_0.tmp_1-1"
                ]
            }, 
            "outputs": {
                "Out": [
                    "pool2d_0.tmp_0"
                ]
            }, 
            "type": "pool2d"
        }, 
        {
            "attrs": {
                "Scale_in": 1.0, 
                "Scale_in_eltwise": 1.0, 
                "Scale_out": 1.0, 
                "Scale_weights": [
                    1.0
                ], 
                "data_format": "AnyLayout", 
                "dilations": [
                    1, 
                    1
                ], 
                "exhaustive_search": false, 
                "force_fp32_output": false, 
                "fuse_relu": false, 
                "fuse_relu_before_depthwise_conv": false, 
                "fuse_residual_connection": false, 
                "groups": 1, 
                "is_test": 1, 
                "paddings": [
                    0, 
                    0
                ], 
                "strides": [
                    1, 
                    1
                ], 
                "use_cudnn": true, 
                "use_mkldnn": false, 
                "workspace_size_MB": 4096
            }, 
            "inputs": {
                "Filter": [
                    "conv2d_1.w_0"
                ], 
                "Input": [
                    "pool2d_0.tmp_0"
                ]
            }, 
            "outputs": {
                "Output": [
                    "conv2d_1.tmp_0"
                ]
            }, 
            "type": "conv2d"
        }, 
        {
            "attrs": {
                "axis": 1, 
                "use_mkldnn": false, 
                "x_data_format": "", 
                "y_data_format": ""
            }, 
            "inputs": {
                "X": [
                    "conv2d_1.tmp_0"
                ], 
                "Y": [
                    "conv2d_1.b_0"
                ]
            }, 
            "outputs": {
                "Out": [
                    "conv2d_1.tmp_1"
                ]
            }, 
            "type": "elementwise_add"
        }, 
        {
            "attrs": {
                "is_test": 1, 
                "use_mkldnn": false
            }, 
            "inputs": {
                "X": [
                    "conv2d_1.tmp_1"
                ]
            }, 
            "outputs": {
                "Out": [
                    "conv2d_1.tmp_1-1"
                ]
            }, 
            "type": "relu"
        }, 
        {
            "attrs": {
                "adaptive": false, 
                "ceil_mode": false, 
                "data_format": "AnyLayout", 
                "exclusive": true, 
                "global_pooling": false, 
                "is_test": 1, 
                "ksize": [
                    2, 
                    2
                ], 
                "paddings": [
                    0, 
                    0
                ], 
                "pooling_type": "max", 
                "strides": [
                    2, 
                    2
                ], 
                "use_cudnn": true, 
                "use_mkldnn": false
            }, 
            "inputs": {
                "X": [
                    "conv2d_1.tmp_1-1"
                ]
            }, 
            "outputs": {
                "Out": [
                    "pool2d_1.tmp_0"
                ]
            }, 
            "type": "pool2d"
        }, 
        {
            "attrs": {
                "x_num_col_dims": 1, 
                "y_num_col_dims": 1
            }, 
            "inputs": {
                "X": [
                    "pool2d_1.tmp_0"
                ], 
                "Y": [
                    "fc_0.w_0"
                ]
            }, 
            "outputs": {
                "Out": [
                    "fc_0.tmp_0"
                ]
            }, 
            "type": "mul"
        }, 
        {
            "attrs": {
                "axis": 1, 
                "use_mkldnn": false, 
                "x_data_format": "", 
                "y_data_format": ""
            }, 
            "inputs": {
                "X": [
                    "fc_0.tmp_0"
                ], 
                "Y": [
                    "fc_0.b_0"
                ]
            }, 
            "outputs": {
                "Out": [
                    "fc_0.tmp_1"
                ]
            }, 
            "type": "elementwise_add"
        }, 
        {
            "attrs": {
                "data_format": "AnyLayout", 
                "is_test": 1, 
                "use_cudnn": false, 
                "use_mkldnn": false
            }, 
            "inputs": {
                "X": [
                    "fc_0.tmp_1"
                ]
            }, 
            "outputs": {
                "Out": [
                    "fc_0.tmp_2"
                ]
            }, 
            "type": "softmax"
        }, 
        {
            "attrs": {
                "bias": 0.0, 
                "bias_after_scale": true, 
                "scale": 1.0
            }, 
            "inputs": {
                "X": [
                    "fc_0.tmp_2"
                ]
            }, 
            "outputs": {
                "Out": [
                    "scale_0.tmp_0"
                ]
            }, 
            "type": "scale"
        }, 
        {
            "attrs": {}, 
            "inputs": {
                "X": [
                    "scale_0.tmp_0"
                ]
            }, 
            "outputs": {
                "Out": [
                    "fetch"
                ]
            }, 
            "type": "fetch"
        }
    ], 
    "vars": [
        {
            "name": "pool2d_1.tmp_0", 
            "persistable": 0, 
            "shape": [
                50, 
                4, 
                4
            ]
        }, 
        {
            "name": "pixel", 
            "persistable": 0, 
            "shape": [
                1, 
                28, 
                28
            ]
        }, 
        {
            "name": "fc_0.tmp_2", 
            "persistable": 0, 
            "shape": [
                10
            ]
        }, 
        {
            "data": [
                0.0045514958910644054, 
                0.01813114807009697, 
                -0.006940572522580624, 
                -0.006421587895601988, 
                -0.0004595274804159999, 
                -0.004917777609080076, 
                -0.005355590954422951, 
                0.006004269700497389, 
                0.00013657027739100158, 
                -0.0014654556289315224
            ], 
            "name": "fc_0.b_0", 
            "persistable": 1, 
            "shape": [
                10
            ]
        }, 
        {
            "name": "pool2d_0.tmp_0", 
            "persistable": 0, 
            "shape": [
                20, 
                12, 
                12
            ]
        }, 
        {
            "data": [
                -0.005491881165653467, 
                -0.006532497704029083, 
                -0.033499278128147125, 
                0.06061440706253052, 
                0.027291186153888702, 
                0.07526520639657974, 
                -0.027625953778624535, 
                -0.0033989043440669775, 
                -0.00898198876529932, 
                0.11746018379926682, 
                0.07982930541038513, 
                0.04828820750117302, 
                0.13582630455493927, 
                -0.017029689624905586, 
                -0.04876222088932991, 
                0.03690103814005852, 
                0.09305265545845032, 
                0.018593942746520042, 
                0.16721758246421814, 
                -0.022933674976229668, 
                -0.04931817948818207, 
                -0.014277744106948376, 
                0.10649699717760086, 
                -0.015666784718632698, 
                0.06405642628669739, 
                -0.04702135920524597, 
                -0.11566781252622604, 
                -0.044079072773456573, 
                -0.10016954690217972, 
                0.059357546269893646, 
                -0.027697665616869926, 
                -0.10673359036445618, 
                -0.013919556513428688, 
                -0.0066292304545640945, 
                0.033504437655210495, 
                -0.12736770510673523, 
                -0.004399393685162067, 
                -0.06440059095621109, 
                0.017940059304237366, 
                -0.11886665970087051, 
                -0.007717161439359188, 
                -0.07071329653263092, 
                0.050569526851177216, 
                -0.033050183206796646, 
                0.06344517320394516, 
                0.09392781555652618, 
                0.06670517474412918, 
                -0.05358932167291641, 
                -0.011638639494776726, 
                -0.037051960825920105, 
                -0.04907303676009178, 
                0.0010598731460049748, 
                -0.04827306419610977, 
                -0.03927956894040108, 
                -0.05558262765407562, 
                -0.03136245906352997, 
                0.008498241193592548, 
                0.020968906581401825, 
                0.011695494875311852, 
                0.06505902856588364, 
                0.035611268132925034, 
                0.076800137758255, 
                0.06205637753009796, 
                -0.03137810155749321, 
                0.10683799535036087, 
                -0.019073795527219772, 
                0.07322097569704056, 
                -0.04053579270839691, 
                0.11293202638626099, 
                0.10005612671375275, 
                -0.03986276313662529, 
                0.010933072306215763, 
                -0.09093908965587616, 
                0.060040466487407684, 
                0.019205089658498764, 
                0.07333998382091522, 
                0.004019567277282476, 
                -0.054194375872612, 
                0.050838664174079895, 
                0.09422855824232101, 
                0.03723863139748573, 
                0.03752223029732704, 
                0.15448856353759766, 
                -0.08638320118188858, 
                -0.07099133729934692, 
                -0.044434498995542526, 
                -0.0006278907530941069, 
                0.07534544914960861, 
                0.10776082426309586, 
                0.09865834563970566, 
                0.046572841703891754, 
                0.01130636502057314, 
                0.0044436282478272915, 
                -0.03537904471158981, 
                0.09156407415866852, 
                0.05098162218928337, 
                -0.04830973967909813, 
                0.09612765908241272, 
                0.029495535418391228, 
                0.04500770568847656, 
                -0.049873773008584976, 
                -0.009575082920491695, 
                0.09547332674264908, 
                -0.09062893688678741, 
                0.004427327308803797, 
                -0.043647293001413345, 
                0.23452907800674438, 
                -0.0009969542734324932, 
                0.04734674468636513, 
                0.11913811415433884, 
                0.021359320729970932, 
                0.05174945294857025, 
                0.06029406562447548, 
                0.1998032182455063, 
                -0.03656942397356033, 
                -0.013166336342692375, 
                -0.07265637814998627, 
                -0.028139393776655197, 
                -0.11834851652383804, 
                -0.09224777668714523, 
                0.03128213435411453, 
                0.048713792115449905, 
                -0.06059011071920395, 
                -0.02909199893474579, 
                0.03486766293644905, 
                -0.021005552262067795, 
                0.004721084609627724, 
                -0.030001457780599594, 
                -0.108199343085289, 
                0.042916037142276764, 
                -0.10064484179019928, 
                0.047784894704818726, 
                0.1426122486591339, 
                0.10834003984928131, 
                0.17279653251171112, 
                -0.02243472822010517, 
                0.01872001774609089, 
                -0.015590439550578594, 
                0.010185189545154572, 
                0.06864362210035324, 
                0.15239065885543823, 
                0.10544389486312866, 
                -0.015790997073054314, 
                -0.035867754369974136, 
                0.07514704763889313, 
                0.09432048350572586, 
                -0.047236476093530655, 
                0.008436433039605618, 
                -0.044746093451976776, 
                0.05387743189930916, 
                -0.13178810477256775, 
                -0.01336917094886303, 
                -0.022630229592323303, 
                -0.09543515741825104, 
                0.03772716969251633, 
                -0.08815871179103851, 
                -0.028543518856167793, 
                0.16657084226608276, 
                0.05158654972910881, 
                0.11547158658504486, 
                -0.0002886587753891945, 
                0.07394049316644669, 
                0.07889716327190399, 
                0.01622871682047844, 
                0.004041501320898533, 
                0.10154514759778976, 
                -0.06737370789051056, 
                -0.057643190026283264, 
                -0.02587457187473774, 
                0.01566409319639206, 
                0.07239022105932236, 
                -0.04235120862722397, 
                -0.0018689476419240236, 
                -0.03156081214547157, 
                0.058632150292396545, 
                0.06791361421346664, 
                -0.027744369581341743, 
                0.02163483016192913, 
                -0.007701289840042591, 
                -0.025109974667429924, 
                0.06906595081090927, 
                0.06799574941396713, 
                -0.034970369189977646, 
                0.023856526240706444, 
                -0.035475268959999084, 
                -0.03582490235567093, 
                0.022020740434527397, 
                -0.03488525003194809, 
                -0.09626322239637375, 
                -0.02719387225806713, 
                -0.12468843907117844, 
                -0.02098039723932743, 
                -0.007858535274863243, 
                0.0010727547341957688, 
                -0.03716558590531349, 
                -0.10559853911399841, 
                0.03548808768391609, 
                0.10034175962209702, 
                -0.06344856321811676, 
                0.013009767048060894, 
                -0.0014986376045271754, 
                -0.029208848252892494, 
                -0.0024786856956779957, 
                -0.08861863613128662, 
                0.018942872062325478, 
                -0.0032459383364766836, 
                -0.1628105640411377, 
                0.06256971508264542, 
                0.08629003167152405, 
                -0.005382628180086613, 
                -0.05427439510822296, 
                -0.011673320084810257, 
                -0.09178093820810318, 
                -0.04582759365439415, 
                0.03586320951581001, 
                -0.015694810077548027, 
                -0.10554064810276031, 
                -0.012733775191009045, 
                0.01325915940105915, 
                0.018528128042817116, 
                -0.009232566691935062, 
                -0.036517638713121414, 
                0.07595649361610413, 
                -0.012040408328175545, 
                -0.04206899553537369, 
                0.07004383206367493, 
                0.034038688987493515, 
                0.09692563116550446, 
                -0.0935581624507904, 
                -0.00949863065034151, 
                0.0728716179728508, 
                0.11849036812782288, 
                0.07611225545406342, 
                -0.027384307235479355, 
                0.008814973756670952, 
                0.07641885429620743, 
                -0.06546657532453537, 
                -0.019950712099671364, 
                0.07254277169704437, 
                0.07655046135187149, 
                0.1510772705078125, 
                -0.152082160115242, 
                0.017446743324398994, 
                0.0923708826303482, 
                -0.08358820527791977, 
                0.03885464370250702, 
                -0.030695581808686256, 
                -0.024672426283359528, 
                -0.10727761685848236, 
                0.06539376080036163, 
                0.03085346147418022, 
                0.004984014201909304, 
                0.06991984695196152, 
                -0.07318361848592758, 
                -0.03354448080062866, 
                0.014104795642197132, 
                -0.10002302378416061, 
                -0.014101316221058369, 
                0.14291365444660187, 
                -0.046763911843299866, 
                -0.08754954487085342, 
                -0.05027155205607414, 
                0.013465853407979012, 
                -0.037261962890625, 
                -0.07972187548875809, 
                -0.06478766351938248, 
                -0.015777407214045525, 
                -0.012833883054554462, 
                0.0702202171087265, 
                -0.03789586201310158, 
                0.08122023195028305, 
                0.09372095763683319, 
                0.019406886771321297, 
                -0.004489055369049311, 
                -0.011841409839689732, 
                -0.009281612932682037, 
                0.10716374218463898, 
                -0.022369712591171265, 
                0.0015275239711627364, 
                -0.09008732438087463, 
                -0.036608338356018066, 
                0.07431604713201523, 
                0.14539672434329987, 
                0.1741359382867813, 
                0.20350980758666992, 
                0.027881324291229248, 
                0.008262253366410732, 
                -0.0855642557144165, 
                0.07777891308069229, 
                0.1282966434955597, 
                0.08724016696214676, 
                0.11596771329641342, 
                0.01813345216214657, 
                -0.0039886473678052425, 
                0.005838654935359955, 
                0.027272332459688187, 
                -0.033971816301345825, 
                -0.046082355082035065, 
                0.01350496057420969, 
                -0.11136218160390854, 
                -0.07727175951004028, 
                -0.03876912593841553, 
                0.016905492171645164, 
                -0.05573587492108345, 
                -0.041059017181396484, 
                -0.06078748032450676, 
                -0.008326420560479164, 
                0.10507460683584213, 
                0.016726341098546982, 
                0.10440310090780258, 
                0.08531240373849869, 
                0.09376724809408188, 
                0.04126141965389252, 
                0.017940295860171318, 
                0.07032475620508194, 
                -0.07430362701416016, 
                -0.05265744775533676, 
                -0.09505389630794525, 
                -0.01580367423593998, 
                -0.10286001116037369, 
                -0.09522316604852676, 
                0.07203296571969986, 
                0.1695752888917923, 
                0.03487570956349373, 
                -0.006426987703889608, 
                -0.07670453190803528, 
                -0.17800959944725037, 
                0.07766281068325043, 
                0.0271662175655365, 
                0.0213764738291502, 
                0.020028766244649887, 
                -0.04516228660941124, 
                0.0458514466881752, 
                0.012988023459911346, 
                0.06586471199989319, 
                0.014423567801713943, 
                -0.09491350501775742, 
                -0.13684163987636566, 
                -0.04554154723882675, 
                0.038859348744153976, 
                0.02551284246146679, 
                0.013908575288951397, 
                -0.028230248019099236, 
                -0.025972118601202965, 
                0.056214433163404465, 
                0.07674694061279297, 
                0.06430759280920029, 
                0.1739370971918106, 
                -0.0758867859840393, 
                -0.08434189856052399, 
                -0.05730656161904335, 
                0.08136700838804245, 
                0.08758754283189774, 
                0.032809674739837646, 
                -0.01963677816092968, 
                0.05356074124574661, 
                -0.006277174688875675, 
                0.06570330262184143, 
                0.09001503139734268, 
                0.030989281833171844, 
                -0.11542331427335739, 
                -0.03832129389047623, 
                0.016551364213228226, 
                0.09941273927688599, 
                -0.05666857212781906, 
                -0.049108847975730896, 
                0.0034522812347859144, 
                -0.048128947615623474, 
                -0.08571252971887589, 
                -0.0715373158454895, 
                0.07479465007781982, 
                0.06833962351083755, 
                0.03217879310250282, 
                0.029651354998350143, 
                -0.16463372111320496, 
                -0.045792270451784134, 
                -0.021103013306856155, 
                0.019664447754621506, 
                0.03977816551923752, 
                0.047426339238882065, 
                0.07806871831417084, 
                0.09252302348613739, 
                -0.1660444736480713, 
                -0.03273919224739075, 
                -0.1277090460062027, 
                -0.029332149773836136, 
                -0.06175461784005165, 
                -0.05666595697402954, 
                -0.11478962004184723, 
                -0.12431804835796356, 
                0.19128213822841644, 
                0.11650557070970535, 
                0.0789974108338356, 
                0.004820714239031076, 
                -0.06346894800662994, 
                0.05729462951421738, 
                0.014422810636460781, 
                0.13377316296100616, 
                0.004683757200837135, 
                -0.06494686752557755, 
                -0.013208874501287937, 
                0.09958221763372421, 
                0.08551350980997086, 
                -0.05674700811505318, 
                -0.1570250689983368, 
                -0.0013068682746961713, 
                0.029822926968336105, 
                0.06865621358156204, 
                0.12446194142103195, 
                0.05672089383006096, 
                -0.0027026808820664883, 
                -0.012822599150240421, 
                -0.0003308386658318341, 
                0.00043277800432406366, 
                0.008154239505529404, 
                0.06240520626306534, 
                -0.02923329919576645, 
                0.015731509774923325, 
                -0.010222010314464569, 
                0.06874904781579971, 
                0.06270760297775269, 
                -0.11881154030561447, 
                0.003981788642704487, 
                -0.045127395540475845, 
                -0.05803500488400459, 
                0.04702987149357796, 
                -0.07202499359846115, 
                -0.01425936445593834, 
                -0.1359778642654419, 
                0.0021820999681949615, 
                0.04770027846097946, 
                0.1014452576637268, 
                0.0027488120831549168, 
                0.03141898289322853, 
                0.03780163452029228, 
                0.07297979295253754, 
                0.06343899667263031, 
                -0.025146493688225746, 
                0.06257700175046921, 
                -0.07419197261333466, 
                0.0690842866897583, 
                0.15416349470615387, 
                0.03367622569203377, 
                0.07624991983175278, 
                0.03531245142221451, 
                -0.04302946850657463, 
                -0.0447268933057785, 
                0.11211554706096649, 
                0.0675777867436409, 
                0.019765185192227364, 
                0.19490879774093628, 
                -0.029583249241113663, 
                0.00196082959882915, 
                0.040031399577856064, 
                0.030880732461810112, 
                -0.03702094778418541, 
                0.08411865681409836, 
                0.07096254080533981, 
                0.13238245248794556, 
                0.015452465042471886, 
                -0.07459242641925812, 
                -0.00013880303595215082, 
                -0.11444152891635895, 
                -0.07143735140562057, 
                0.1137225404381752, 
                0.08607547730207443, 
                -0.02842647023499012, 
                0.12685619294643402, 
                -0.0027619118336588144, 
                0.02196664735674858, 
                0.009277748875319958, 
                -0.01914345659315586, 
                0.0008457633666694164, 
                -0.08469413220882416, 
                0.04339180514216423, 
                -0.011976380832493305, 
                -0.10905294120311737, 
                -0.08297762274742126, 
                -0.03892798349261284, 
                0.02825838327407837, 
                -0.001382168149575591, 
                -0.011746512725949287, 
                0.09352214634418488, 
                0.03162927180528641, 
                0.01365240290760994, 
                -0.03577578067779541, 
                -0.01252751424908638, 
                0.045115355402231216, 
                -0.07683329284191132, 
                0.07296901941299438, 
                -0.023597240447998047, 
                0.11379577219486237, 
                0.02164638787508011, 
                -0.07325626164674759, 
                0.054479558020830154, 
                -0.09039241075515747, 
                0.12452304363250732, 
                0.002560058142989874, 
                0.046308331191539764, 
                -0.08197234570980072, 
                -0.09690101444721222, 
                -0.043741513043642044, 
                -0.07369757443666458, 
                0.017757922410964966, 
                0.017003128305077553, 
                0.05215315893292427, 
                -0.039683565497398376, 
                0.024303074926137924, 
                -0.050101399421691895, 
                -0.06407245993614197, 
                -0.11130876839160919, 
                -0.0826142430305481, 
                0.022314798086881638, 
                -0.050314947962760925, 
                -0.10898224264383316, 
                -0.014844205230474472, 
                0.022119984030723572, 
                -0.07889331877231598, 
                0.0245372261852026, 
                0.06001506745815277, 
                0.02032468467950821, 
                -0.012280249036848545, 
                -0.009988962672650814, 
                -0.030167898163199425, 
                -0.004103172104805708, 
                0.013623572885990143, 
                -0.023933595046401024, 
                -0.02577984146773815, 
                -0.11667443066835403, 
                -0.02699991874396801, 
                0.03223263472318649, 
                -0.07502260059118271, 
                0.022707078605890274, 
                -0.046529289335012436, 
                0.04390464350581169, 
                0.08711829781532288, 
                0.14494588971138, 
                0.07305101305246353, 
                0.13871781527996063, 
                0.045081138610839844, 
                -0.09111922234296799, 
                0.005685961339622736, 
                0.07335156202316284, 
                -0.0348510704934597, 
                -0.14715994894504547, 
                -0.0701967254281044, 
                -0.08507459610700607, 
                0.09071533381938934, 
                -0.09317151457071304, 
                -0.0011194911785423756, 
                -0.2188538759946823, 
                -0.08678051829338074, 
                -0.05205266550183296, 
                -0.06277073919773102, 
                0.013608699664473534, 
                -0.030518194660544395, 
                0.030625388026237488, 
                -0.1717885285615921, 
                -0.11723648756742477, 
                -0.10288554430007935, 
                0.04660147801041603, 
                0.10588963329792023, 
                0.10623914748430252, 
                -0.002501053037121892, 
                0.0025550993159413338, 
                0.06110814958810806, 
                0.16916431486606598, 
                0.1706210821866989, 
                0.027362678200006485, 
                -0.004945534747093916, 
                0.025950174778699875, 
                -0.0019720401614904404, 
                -0.027970969676971436, 
                0.11080228537321091, 
                -0.05195406824350357, 
                -0.10331552475690842, 
                -0.10434091836214066, 
                -0.05024202913045883, 
                -0.11661337316036224, 
                -0.10505416989326477, 
                -0.0719069391489029, 
                0.016237759962677956, 
                0.016345685347914696, 
                -0.052481748163700104, 
                -0.09972666203975677, 
                0.05910031497478485, 
                0.09346596896648407, 
                0.15215915441513062, 
                0.08903913199901581, 
                0.04712345823645592, 
                0.019868910312652588, 
                0.033450786024332047, 
                0.0728224664926529, 
                0.12991972267627716, 
                0.04808439686894417, 
                0.028639845550060272, 
                0.07949212193489075, 
                0.1034361943602562, 
                0.0945294126868248, 
                0.006769457366317511, 
                0.08864255249500275, 
                -0.05756434425711632, 
                0.05746433883905411, 
                0.07489977777004242, 
                0.0644645243883133, 
                -0.06938497722148895, 
                -0.0971866026520729, 
                0.12257964164018631, 
                0.027012813836336136, 
                0.0750877782702446, 
                0.05607672780752182, 
                -0.014195108786225319, 
                -0.08459749072790146, 
                -0.1278584897518158, 
                -0.07525766640901566, 
                -0.03652578219771385, 
                0.042802244424819946, 
                -0.026928022503852844, 
                -0.053343936800956726, 
                0.036034438759088516, 
                0.005410835146903992, 
                -0.005793195683509111, 
                0.10661300271749496, 
                0.12181216478347778, 
                0.13222558796405792, 
                0.0037014225963503122, 
                -0.02319200523197651, 
                -0.07527326792478561, 
                0.0517294816672802, 
                -0.09513694792985916, 
                0.0013696609530597925, 
                0.04620639607310295, 
                -0.06672368943691254, 
                -0.10119184106588364, 
                -0.1076555922627449, 
                -0.0617961660027504, 
                -0.035670891404151917, 
                0.028831766918301582, 
                0.10337900370359421, 
                -0.07568870484828949, 
                -0.05111601576209068, 
                0.13198602199554443, 
                -0.012373877689242363, 
                -0.014667961746454239, 
                0.10898686945438385, 
                0.18487878143787384, 
                -0.004318901337683201, 
                -0.0010321976151317358, 
                -0.0006472013192251325, 
                -0.07702641189098358, 
                0.031465161591768265, 
                -0.08775676786899567, 
                -0.031010989099740982, 
                0.08160623162984848, 
                0.04595858231186867, 
                -0.009366528131067753, 
                -0.06991825997829437, 
                -0.10417511314153671, 
                -0.1612468659877777, 
                -0.13572120666503906, 
                -0.09490511566400528, 
                0.08107087761163712, 
                -0.014491116628050804, 
                -0.017690444365143776, 
                -0.056821323931217194, 
                0.027236126363277435, 
                0.009449581615626812, 
                0.049925051629543304, 
                0.04103138670325279, 
                -0.012044364586472511, 
                -0.002328546717762947, 
                -0.07125557959079742, 
                0.09047248959541321, 
                0.008527107536792755, 
                -0.010427417233586311, 
                0.09393119812011719, 
                0.1866418719291687, 
                0.11334601789712906, 
                -0.09204346686601639, 
                -0.05189944803714752, 
                0.012831027619540691, 
                0.01909227855503559, 
                -0.0682288259267807, 
                0.07363145798444748, 
                0.10756311565637589, 
                -0.005778480786830187, 
                0.004308242350816727, 
                -0.024908877909183502, 
                0.023808373138308525, 
                -0.09733989834785461, 
                -0.049417998641729355, 
                -0.045734841376543045, 
                0.0031415773555636406, 
                -0.07729825377464294, 
                -0.11821679770946503, 
                -0.09601709991693497, 
                0.0024915665853768587, 
                0.030289024114608765, 
                -0.10232260078191757, 
                -0.06584424525499344, 
                -0.1403854787349701, 
                0.05956578254699707, 
                -0.012107077054679394, 
                0.009438897483050823, 
                0.022123906761407852, 
                -0.09996230900287628, 
                -0.049467820674180984, 
                0.014772798866033554, 
                -0.06851692497730255, 
                -0.11617206037044525, 
                -0.07100524753332138, 
                -0.04627392441034317, 
                -0.02870245836675167, 
                -0.10621165484189987, 
                -0.034507475793361664, 
                -0.0826566144824028, 
                -0.005372343584895134, 
                -0.0691474974155426, 
                -0.1690017133951187, 
                -0.0892476886510849, 
                -0.054224323481321335, 
                -0.11062789708375931, 
                -0.0421912781894207, 
                -0.04741758480668068, 
                -0.09007658809423447, 
                0.009792250581085682, 
                -0.03135307878255844, 
                0.04694749042391777, 
                -0.1507245898246765, 
                0.05734573304653168, 
                -0.2560553252696991, 
                -0.09023227542638779, 
                -0.06038205325603485, 
                -0.07714487612247467, 
                -0.013866584748029709, 
                0.006758424453437328, 
                -0.0018472453812137246, 
                0.007694542873650789, 
                -0.106237031519413, 
                -0.20554062724113464, 
                -0.09537595510482788, 
                -0.022253431379795074, 
                0.05452687293291092, 
                -0.10208410769701004, 
                -0.05269899219274521, 
                -0.045171063393354416, 
                0.007768103387206793, 
                0.0025933142751455307, 
                -0.042623184621334076, 
                0.09122490137815475, 
                0.015091248787939548, 
                -0.07355638593435287, 
                -0.12907230854034424, 
                -0.07669097185134888, 
                0.13770388066768646, 
                0.011762460693717003, 
                0.027369271963834763, 
                0.15313397347927094, 
                -0.011644795536994934, 
                0.018359828740358353, 
                0.060816824436187744, 
                0.06888489425182343, 
                0.012086044065654278, 
                0.16337230801582336, 
                0.1412266194820404, 
                -0.0677141398191452, 
                0.08972740173339844, 
                0.06555817276239395, 
                0.019502609968185425, 
                -0.009507752023637295, 
                -0.0019788446370512247, 
                -0.07788769155740738, 
                -0.15670081973075867, 
                -0.045484963804483414, 
                -0.06656123697757721, 
                0.1061486229300499, 
                0.07356178760528564, 
                -0.11296892911195755, 
                0.040082067251205444, 
                0.030106037855148315, 
                0.011077473871409893, 
                -0.1901102215051651, 
                0.08025948703289032, 
                -0.05130310729146004, 
                0.055848587304353714, 
                0.08882544189691544, 
                0.1050788164138794, 
                0.02785404399037361, 
                -0.07189583033323288, 
                -0.10528882592916489, 
                -0.07345226407051086, 
                0.011313553899526596, 
                -0.01619427092373371, 
                0.06029626354575157, 
                0.09765195101499557, 
                3.6623532650992274e-05, 
                -0.07924874871969223, 
                0.026896927505731583, 
                -0.055006880313158035, 
                0.008819829672574997, 
                -0.01353966910392046, 
                -0.028670135885477066, 
                0.017723293974995613, 
                -0.00471130944788456, 
                -0.04481221362948418, 
                -0.18290625512599945, 
                -0.13586023449897766, 
                0.05599309504032135, 
                -0.0841885432600975, 
                -0.015328160487115383, 
                -0.01075512170791626, 
                0.029697149991989136, 
                0.015270296484231949, 
                -0.013495448976755142, 
                0.014350769110023975, 
                -0.17266185581684113, 
                -0.035355664789676666, 
                0.07878261804580688, 
                -0.00195974949747324, 
                -0.04612153396010399, 
                -0.03576163947582245, 
                -0.020022662356495857, 
                -0.04491456225514412, 
                0.011709557846188545, 
                0.09432593733072281, 
                -0.028545208275318146, 
                -0.045668043196201324, 
                -0.09288793057203293, 
                -0.0015823269495740533, 
                0.02571156620979309, 
                0.022035570815205574, 
                0.019614599645137787, 
                0.06156256049871445, 
                0.14557327330112457, 
                0.016051936894655228, 
                -0.012092548422515392, 
                -0.13891950249671936, 
                -0.045575980097055435, 
                0.13289333879947662, 
                0.12666575610637665, 
                0.09836117923259735, 
                0.054208338260650635, 
                0.08592182397842407, 
                -0.10656211525201797, 
                -0.03310102969408035, 
                0.02941678650677204, 
                0.0708257332444191, 
                0.04133132845163345, 
                0.061695221811532974, 
                -0.1004953607916832, 
                0.10050727427005768, 
                0.049702491611242294, 
                0.023409787565469742, 
                0.07506778091192245, 
                0.049620822072029114, 
                0.04733450710773468, 
                0.055481020361185074, 
                0.03382725641131401, 
                0.09942185133695602, 
                -0.02002326399087906, 
                0.027739718556404114, 
                -0.041232239454984665, 
                -0.04780994728207588, 
                -0.14183221757411957, 
                -0.1827164739370346, 
                -0.018792428076267242, 
                -0.036572400480508804, 
                -0.024459006264805794, 
                0.03223196417093277, 
                0.048843901604413986, 
                0.0888548344373703, 
                -0.041990190744400024, 
                -0.0031686078291386366, 
                -0.10775752365589142, 
                0.14146260917186737, 
                -0.018511662259697914, 
                -0.09298624843358994, 
                -0.12443601340055466, 
                -0.06127316504716873, 
                -0.0772520899772644, 
                -0.05656011402606964, 
                0.08793822675943375, 
                0.04240969941020012, 
                -0.05417129769921303, 
                -0.12441343814134598, 
                0.027751397341489792, 
                -0.1671549379825592, 
                -0.054673030972480774, 
                0.0007739968132227659, 
                -0.00920278113335371, 
                -0.014955487102270126, 
                0.030480336397886276, 
                0.015263289213180542, 
                0.06603719294071198, 
                0.04496026411652565, 
                -0.02119605988264084, 
                0.04056945815682411, 
                0.019018499180674553, 
                -0.06618841737508774, 
                0.10362781584262848, 
                0.009035149589180946, 
                0.08318527787923813, 
                0.08553042262792587, 
                -0.028173938393592834, 
                0.09422796219587326, 
                -0.08976846933364868, 
                -0.0586770623922348, 
                0.05809102579951286, 
                0.013251060619950294, 
                0.04452739283442497, 
                -0.038591280579566956, 
                -0.02138342894613743, 
                -0.036651238799095154, 
                -0.13732662796974182, 
                -0.0784408450126648, 
                0.08671141415834427, 
                0.017318764701485634, 
                0.0565950945019722, 
                -0.015972480177879333, 
                -0.038128260523080826, 
                -0.026793530210852623, 
                -0.005597009789198637, 
                0.11199229955673218, 
                0.03839651867747307, 
                0.16583552956581116, 
                -0.06765775382518768, 
                -0.07881057262420654, 
                0.004903630819171667, 
                0.027013109996914864, 
                0.13920757174491882, 
                -0.06582731753587723, 
                -0.20024900138378143, 
                0.02455791085958481, 
                -0.10423744469881058, 
                -0.12493482232093811, 
                0.048181455582380295, 
                -0.06457912921905518, 
                -0.029311174526810646, 
                0.06659580022096634, 
                0.032129038125276566, 
                0.11603418737649918, 
                0.13299474120140076, 
                -0.009290611371397972, 
                0.0318739227950573, 
                -0.03914215415716171, 
                0.046353619545698166, 
                -0.01922648213803768, 
                0.06589058041572571, 
                0.0366431288421154, 
                0.11069319397211075, 
                0.10483238101005554, 
                0.055721767246723175, 
                -0.011186898685991764, 
                0.024057241156697273, 
                0.026371249929070473, 
                0.08007000386714935, 
                0.1662531942129135, 
                -0.048375047743320465, 
                0.042065784335136414, 
                -0.012913338840007782, 
                0.018124110996723175, 
                -0.06762129068374634, 
                -0.06989618390798569, 
                0.01059077400714159, 
                -0.004990711808204651, 
                0.12279701977968216, 
                0.009729978628456593, 
                -0.0644046887755394, 
                -0.006920251529663801, 
                -0.036255933344364166, 
                0.013897920958697796, 
                -0.04473719745874405, 
                0.09034524857997894, 
                0.011848618276417255, 
                0.08293798565864563, 
                -0.07791343331336975, 
                -0.03256966546177864, 
                -0.0035011619329452515, 
                -0.09755384176969528, 
                -0.0338728241622448, 
                -0.025966813787817955, 
                0.03713707998394966, 
                -0.061152949929237366, 
                -0.035346511751413345, 
                0.025605637580156326, 
                -0.02312128245830536, 
                -0.07887934148311615, 
                0.09573734551668167, 
                0.11268413811922073, 
                -0.046440958976745605, 
                -0.06905536353588104, 
                0.10861824452877045, 
                0.011942421086132526, 
                0.05994714796543121, 
                0.05592643842101097, 
                0.12431474030017853, 
                0.1222366914153099, 
                0.011588215827941895, 
                -0.04407113790512085, 
                0.009651106782257557, 
                0.023789867758750916, 
                -0.06835778057575226, 
                -0.03199997916817665, 
                -0.032400790601968765, 
                -0.08923648297786713, 
                -0.04464564472436905, 
                -0.1458568423986435, 
                -0.06841455399990082, 
                0.02472839690744877, 
                -0.11623892188072205, 
                -0.062005434185266495, 
                0.029197296127676964, 
                -0.0982867181301117, 
                -0.014986337162554264, 
                -0.04862562566995621, 
                -0.026855183765292168, 
                -0.061304960399866104, 
                -0.014159289188683033, 
                -0.1125878244638443, 
                -0.014747073873877525, 
                0.005273205693811178, 
                -0.019295163452625275, 
                -0.04779413342475891, 
                -0.005982493050396442, 
                -0.0030289911665022373, 
                -0.01472483016550541, 
                0.032020147889852524, 
                -0.018139872699975967, 
                0.01926981844007969, 
                -0.06910970062017441, 
                0.07821642607450485, 
                -0.04126954823732376, 
                0.05118783563375473, 
                -0.1516193300485611, 
                -0.028636697679758072, 
                0.032032087445259094, 
                0.03555358946323395, 
                0.08748723566532135, 
                0.006658071652054787, 
                0.1206163763999939, 
                0.06525121629238129, 
                0.03829644247889519, 
                0.0762605369091034, 
                0.06191426143050194, 
                0.04233502224087715, 
                -0.10673415660858154, 
                0.12882618606090546, 
                -0.01465634535998106, 
                0.05493597313761711, 
                0.038308046758174896, 
                0.01512005552649498, 
                0.0026300994213670492, 
                -0.04742776229977608, 
                0.01970968395471573, 
                -0.02898070029914379, 
                -0.003745922353118658, 
                -0.06667611747980118, 
                0.0851641297340393, 
                0.06914044171571732, 
                0.03668312355875969, 
                -0.07975027710199356, 
                -0.044698651880025864, 
                0.001639139954932034, 
                -0.0168530885130167, 
                -0.01355783548206091, 
                -0.012670723721385002, 
                -0.014412312768399715, 
                -0.095464326441288, 
                -0.022326231002807617, 
                0.022570369765162468, 
                0.01829986460506916, 
                0.07817351818084717, 
                0.14321821928024292, 
                0.00951739214360714, 
                0.012064140290021896, 
                -0.11406625062227249, 
                -0.021903937682509422, 
                -0.013286751694977283, 
                0.04720240458846092, 
                -0.10174055397510529, 
                -0.15826979279518127, 
                0.004440426826477051, 
                -0.04685504361987114, 
                -0.050991009920835495, 
                -0.05774158984422684, 
                -0.19430267810821533, 
                -0.0074010067619383335, 
                -0.08957955241203308, 
                -0.04465923830866814, 
                -0.08863629400730133, 
                -0.06119987741112709, 
                0.03133535757660866, 
                -0.007273968309164047, 
                -0.09376514703035355, 
                -0.008827054873108864, 
                -0.022562522441148758, 
                -0.002999622607603669, 
                0.10039440542459488, 
                -0.03395123779773712, 
                0.010094409808516502, 
                0.07667553424835205, 
                0.0024152647238224745, 
                0.07534152269363403, 
                -0.11367239058017731, 
                -0.06026158481836319, 
                -0.01897578313946724, 
                -0.048131927847862244, 
                -0.08376796543598175, 
                -0.112206369638443, 
                0.012957671657204628, 
                -0.06099797040224075, 
                -0.11240588873624802, 
                -0.016337117180228233, 
                -0.07809201627969742, 
                0.05470041185617447, 
                0.03654862195253372, 
                -0.09035763144493103, 
                0.06293127685785294, 
                -0.04723886027932167, 
                0.09796041995286942, 
                -0.08227711915969849, 
                -0.03268422931432724, 
                0.14005853235721588, 
                -0.020581714808940887, 
                -0.01044804509729147, 
                -0.06281495839357376, 
                0.04261218011379242, 
                -0.014267366379499435, 
                -0.07013420015573502, 
                -0.058453064411878586, 
                -0.05758339539170265, 
                0.013103041797876358, 
                -0.11075535416603088, 
                0.08407657593488693, 
                -0.045231401920318604, 
                -0.09508588910102844, 
                -0.14418326318264008, 
                0.05701461061835289, 
                -0.050862785428762436, 
                -0.005210725590586662, 
                0.056409984827041626, 
                -0.028706707060337067, 
                0.023596925660967827, 
                -0.037841424345970154, 
                -0.11583301424980164, 
                0.0053054350428283215, 
                -0.02211955562233925, 
                -0.0015174142317846417, 
                -0.027037153020501137, 
                -0.06087672710418701, 
                -0.015832513570785522, 
                -0.08158549666404724, 
                -0.060301102697849274, 
                -0.02307288907468319, 
                -0.0576147586107254, 
                -0.014320333488285542, 
                0.010549369268119335, 
                -0.02291768230497837, 
                -0.03358331695199013, 
                0.034706972539424896, 
                -0.023342464119195938, 
                0.0028473129495978355, 
                -0.0218350850045681, 
                -0.054655250161886215, 
                -0.11155152320861816, 
                -0.18614746630191803, 
                -0.03968299552798271, 
                -0.03240720555186272, 
                -0.07001922279596329, 
                -0.02184017188847065, 
                0.02814709022641182, 
                0.11033216118812561, 
                0.015327188186347485, 
                0.03185831382870674, 
                0.01438530907034874, 
                0.07195057719945908, 
                -0.023090019822120667, 
                0.0758412703871727, 
                0.09152329713106155, 
                0.05894371122121811, 
                0.015991682186722755, 
                -0.022768083959817886, 
                -0.09143482148647308, 
                0.004063268192112446, 
                -0.10032188147306442, 
                0.029258402064442635, 
                -0.06706228852272034, 
                0.08920222520828247, 
                -0.006337631028145552, 
                -0.010133038274943829, 
                -0.02545865625143051, 
                -0.09371787309646606, 
                -0.02292517200112343, 
                0.032712966203689575, 
                0.022839393466711044, 
                -0.022796252742409706, 
                -0.04655768722295761, 
                -0.03408065810799599, 
                -0.0923498198390007, 
                -0.03518824279308319, 
                -0.032259147614240646, 
                -0.01263802032917738, 
                0.11816496402025223, 
                0.08991023898124695, 
                0.023471646010875702, 
                0.03232048079371452, 
                0.05863185599446297, 
                -0.09559501707553864, 
                0.012484627775847912, 
                0.08433505892753601, 
                -0.015356067568063736, 
                -0.02808740921318531, 
                0.018958332017064095, 
                0.021437419578433037, 
                -0.004185804631561041, 
                0.08581490814685822, 
                0.1012534350156784, 
                0.0958416610956192, 
                0.07606321573257446, 
                -0.0204257071018219, 
                0.085910864174366, 
                -0.021140314638614655, 
                -0.0007419685134664178, 
                -0.07016854733228683, 
                -0.001057666027918458, 
                -0.08628227561712265, 
                0.006469727028161287, 
                0.12133912742137909, 
                -0.022434202954173088, 
                0.043380413204431534, 
                -0.08305425941944122, 
                -0.024315057322382927, 
                -0.03238650783896446, 
                -0.015725860372185707, 
                -0.02261970192193985, 
                -0.11686094850301743, 
                -0.07004391402006149, 
                -0.02764388732612133, 
                0.013292906805872917, 
                -0.055448491126298904, 
                -0.04869520291686058, 
                -0.05527510493993759, 
                -0.08528677374124527, 
                -0.024644752964377403, 
                0.04680338129401207, 
                -0.05477888137102127, 
                -0.07607702165842056, 
                -0.07992982864379883, 
                -0.025985345244407654, 
                -0.010596460662782192, 
                -0.048900056630373, 
                0.06872109323740005, 
                -0.08654505759477615, 
                -0.03376239910721779, 
                0.07384922355413437, 
                -0.05747387185692787, 
                0.10313508659601212, 
                -0.009428814984858036, 
                0.02858741022646427, 
                -0.010312688536942005, 
                -1.0014660801971331e-05, 
                -0.02893633209168911, 
                0.0010942867957055569, 
                -0.09448923915624619, 
                0.0366508923470974, 
                0.1304139792919159, 
                0.021619189530611038, 
                0.0788460224866867, 
                0.17042963206768036, 
                0.13413815200328827, 
                -0.024742644280195236, 
                0.07511866092681885, 
                -0.04695168510079384, 
                -0.0008153430535458028, 
                0.037403374910354614, 
                0.016262119635939598, 
                0.0952715203166008, 
                -0.02282269485294819, 
                -0.0819743350148201, 
                -0.07506150007247925, 
                -0.046480968594551086, 
                -0.04279407113790512, 
                0.002522788941860199, 
                -0.11165676265954971, 
                -0.06242813915014267, 
                -0.09314113110303879, 
                -0.007268232759088278, 
                -0.05034227669239044, 
                -0.04499287158250809, 
                0.03591658174991608, 
                -0.07171623408794403, 
                -0.02932477556169033, 
                -0.0506618358194828, 
                0.001678731176070869, 
                -0.031178882345557213, 
                -0.12979571521282196, 
                0.01812770590186119, 
                -0.02313065715134144, 
                0.02796264737844467, 
                -0.014187969267368317, 
                -0.035098399966955185, 
                0.10417875647544861, 
                0.047523219138383865, 
                -0.048161786049604416, 
                -0.021109795197844505, 
                -0.05778893455862999, 
                0.037112586200237274, 
                0.0213642381131649, 
                0.037746477872133255, 
                0.03653550148010254, 
                -0.002393929287791252, 
                -0.09488150477409363, 
                0.027858657762408257, 
                0.11583726853132248, 
                -0.07805519551038742, 
                0.05664978176355362, 
                0.10015038400888443, 
                0.08029276132583618, 
                0.04455007240176201, 
                -0.18445904552936554, 
                0.13389341533184052, 
                -0.031532566994428635, 
                0.09103833884000778, 
                -0.024430392310023308, 
                -0.05513641610741615, 
                -0.06698205322027206, 
                0.006146344356238842, 
                0.022965194657444954, 
                -0.12189508974552155, 
                0.04153886064887047, 
                0.005726799834519625, 
                0.006262415088713169, 
                -0.07465148717164993, 
                -0.036146122962236404, 
                -0.0813467726111412, 
                0.0486433319747448, 
                0.026749262586236, 
                0.07828547060489655, 
                0.039991963654756546, 
                -0.0673329085111618, 
                0.018741190433502197, 
                0.0009976972360163927, 
                0.06399878859519958, 
                -0.01635710522532463, 
                0.11583618074655533, 
                0.07674461603164673, 
                0.005569389555603266, 
                -0.024818019941449165, 
                0.026725873351097107, 
                0.09992868453264236, 
                -0.013885307125747204, 
                0.17957107722759247, 
                0.05626800283789635, 
                0.04799317568540573, 
                0.007310048211365938, 
                0.01321922242641449, 
                -0.024122580885887146, 
                -0.01849905587732792, 
                -0.0632128044962883, 
                -0.034582290798425674, 
                -0.1401020884513855, 
                -0.01680874265730381, 
                0.11826704442501068, 
                0.11463307589292526, 
                0.013877280056476593, 
                -0.0869997888803482, 
                -0.06222134083509445, 
                0.12649120390415192, 
                0.003266832558438182, 
                0.0056673381477594376, 
                -0.11145365983247757, 
                -0.0065640779212117195, 
                -0.04412279278039932, 
                0.05769312381744385, 
                -0.05791163444519043, 
                -0.046884872019290924, 
                0.04306616261601448, 
                -0.07608789950609207, 
                -0.011529345996677876, 
                -0.07836936414241791, 
                -0.038916029036045074, 
                0.003074795473366976, 
                0.002825746312737465, 
                -0.06084880232810974, 
                -0.11657684296369553, 
                -0.06461712718009949, 
                -0.06607482582330704, 
                -0.05292627960443497, 
                0.024810876697301865, 
                -0.13158461451530457, 
                -0.004780832212418318, 
                -0.0279613696038723, 
                0.01744750887155533, 
                0.02953987382352352, 
                0.020833555608987808, 
                0.04422788694500923, 
                0.04581081122159958, 
                0.08025642484426498, 
                0.05325528234243393, 
                -0.08164041489362717, 
                0.027768785133957863, 
                0.044218093156814575, 
                0.017042575404047966, 
                0.002739964285865426, 
                0.12020286172628403, 
                -0.011277099139988422, 
                -0.09852725267410278, 
                -0.0641440823674202, 
                0.032353997230529785, 
                -0.07755302637815475, 
                -0.047707851976156235, 
                -0.060566410422325134, 
                -0.007923423312604427, 
                -0.04053962230682373, 
                0.0014208892825990915, 
                0.04057058319449425, 
                0.001028193044476211, 
                -0.06565698981285095, 
                -0.06051615625619888, 
                -0.0011804377427324653, 
                0.0654565766453743, 
                0.0030805598944425583, 
                0.016363121569156647, 
                0.02628703974187374, 
                0.13564768433570862, 
                -0.07369429618120193, 
                -0.02636205218732357, 
                -0.010454014874994755, 
                0.003140420187264681, 
                -0.08778916299343109, 
                -0.03437671437859535, 
                -0.044090621173381805, 
                -0.06659426540136337, 
                -0.0431012324988842, 
                -0.07047634571790695, 
                -0.0646096020936966, 
                -0.061166003346443176, 
                -0.11058224737644196, 
                0.03288215771317482, 
                -0.10262749344110489, 
                -0.08263544738292694, 
                0.002015459118410945, 
                -0.08919497579336166, 
                0.042675990611314774, 
                -0.2140895128250122, 
                0.043734047561883926, 
                0.023267298936843872, 
                0.052507441490888596, 
                0.08195266127586365, 
                -0.09313303232192993, 
                0.17152181267738342, 
                0.14946462213993073, 
                0.10772330313920975, 
                -0.004588171374052763, 
                0.08698770403862, 
                -0.019728196784853935, 
                -0.0015384999569505453, 
                -0.011802556924521923, 
                -0.06219298765063286, 
                -0.04547889903187752, 
                -0.03120354562997818, 
                0.0403885692358017, 
                0.06874993443489075, 
                -0.04369828850030899, 
                0.0330965593457222, 
                -0.0751291960477829, 
                -0.0002377579512540251, 
                0.017144063487648964, 
                -0.003007779363542795, 
                -0.07719574123620987, 
                -0.0467611588537693, 
                -0.012135780416429043, 
                0.04979769513010979, 
                -0.12092825025320053, 
                -0.1861337572336197, 
                -0.0789569839835167, 
                -0.0711672380566597, 
                0.04778023064136505, 
                -0.09901343286037445, 
                -0.010816412046551704, 
                -0.00011133505176985636, 
                -0.011801104061305523, 
                0.02698506973683834, 
                0.04918111860752106, 
                0.07643827795982361, 
                0.006346900016069412, 
                -0.002433240879327059, 
                -0.050489310175180435, 
                -0.003642166033387184, 
                0.06417372822761536, 
                0.05599668249487877, 
                0.02792924828827381, 
                -0.025473423302173615, 
                -0.023375334218144417, 
                -0.039125941693782806, 
                0.05602622777223587, 
                0.05307808890938759, 
                0.07067331671714783, 
                0.10211994498968124, 
                0.10847584903240204, 
                -0.008075287565588951, 
                -0.07508789747953415, 
                0.04173840582370758, 
                -0.008665475994348526, 
                0.03307066485285759, 
                -0.005431563593447208, 
                0.059118323028087616, 
                -0.10301025211811066, 
                -0.09052537381649017, 
                -0.046940695494413376, 
                0.09429506212472916, 
                0.13763940334320068, 
                0.04734968766570091, 
                -0.07769612222909927, 
                -0.09164485335350037, 
                -0.031076699495315552, 
                -0.019201209768652916, 
                -0.18202321231365204, 
                -0.14138160645961761, 
                0.04265245050191879, 
                0.14548681676387787, 
                -0.023809796199202538, 
                -0.1080830842256546, 
                0.005214058794081211, 
                0.02968217059969902, 
                -0.038980256766080856, 
                -0.060942988842725754, 
                -0.004197065252810717, 
                -0.11170579493045807, 
                0.14003491401672363, 
                -0.006724451668560505, 
                0.009529311209917068, 
                -0.07184749841690063, 
                -0.07882008701562881, 
                0.06241069734096527, 
                0.07811477035284042, 
                -0.04399075359106064, 
                -0.10194740444421768, 
                -0.040789104998111725, 
                -0.009017781354486942, 
                -0.018320538103580475, 
                -0.059321798384189606, 
                0.13130149245262146, 
                0.04383701831102371, 
                0.02545277588069439, 
                0.0433112271130085, 
                -0.008265494368970394, 
                0.008492486551404, 
                0.04627238214015961, 
                -0.053380563855171204, 
                0.04737154394388199, 
                -0.1013852134346962, 
                0.0740884318947792, 
                -0.055670011788606644, 
                -0.002375605283305049, 
                0.05832694098353386, 
                -0.06261661648750305, 
                0.06733376532793045, 
                -0.07384362071752548, 
                0.06945957988500595, 
                -0.07236289978027344, 
                -0.008151435293257236, 
                -0.08265931159257889, 
                -0.031298886984586716, 
                -0.005218417849391699, 
                0.008405745960772038, 
                -0.021263008937239647, 
                0.010895997285842896, 
                -0.07821221649646759, 
                0.023603223264217377, 
                -0.01569736935198307, 
                -0.10215824842453003, 
                -0.006514842621982098, 
                0.037076883018016815, 
                -0.039819058030843735, 
                -0.07958976924419403, 
                -0.003780529135838151, 
                0.049834080040454865, 
                -0.015938594937324524, 
                0.14832736551761627, 
                0.024196939542889595, 
                -0.003660062560811639, 
                -0.02355257421731949, 
                -0.13192322850227356, 
                0.04494435712695122, 
                0.049515001475811005, 
                -0.0016260765260085464, 
                0.04686921089887619, 
                -0.02430812641978264, 
                -0.03862755745649338, 
                -0.11385208368301392, 
                -0.09897541254758835, 
                0.015438739210367203, 
                0.024104582145810127, 
                -0.049180660396814346, 
                -0.014642903581261635, 
                0.09608599543571472, 
                0.019708503037691116, 
                -0.004947121255099773, 
                0.017472267150878906, 
                -0.11528360843658447, 
                0.08062920719385147, 
                0.055258411914110184, 
                0.0030404115095734596, 
                0.020160771906375885, 
                -0.004436710849404335, 
                -0.023685503751039505, 
                0.017681322991847992, 
                0.06636592745780945, 
                0.13102370500564575, 
                0.01113942265510559, 
                0.02711331844329834, 
                -0.018761327490210533, 
                0.026975559070706367, 
                0.00065016676671803, 
                -0.02664119377732277, 
                -0.04069521650671959, 
                0.10067413002252579, 
                0.041301582008600235, 
                -0.0002889616007450968, 
                -0.1386793702840805, 
                0.00522321742027998, 
                -0.06471818685531616, 
                0.042023200541734695, 
                0.0019125300459563732, 
                -0.0002970874193124473, 
                -0.11429668217897415, 
                -0.09463932365179062, 
                -0.021016160026192665, 
                -0.05731713026762009, 
                0.10262996703386307, 
                -0.05775542929768562, 
                0.02014997787773609, 
                -0.0014251337852329016, 
                0.0005139224813319743, 
                0.04702574014663696, 
                -0.025378964841365814, 
                -0.05316224321722984, 
                -0.09533284604549408, 
                -0.09586848318576813, 
                -0.06914912164211273, 
                0.007086538709700108, 
                -0.024470334872603416, 
                0.0215877927839756, 
                -0.06041401997208595, 
                0.15018248558044434, 
                0.03489050641655922, 
                0.02038314752280712, 
                0.0902649462223053, 
                0.05798514187335968, 
                -0.02049071528017521, 
                0.03800678253173828, 
                0.2099294364452362, 
                -0.04233059659600258, 
                -0.031241612508893013, 
                -0.007330070715397596, 
                -0.06185728684067726, 
                0.05602945014834404, 
                0.01851089484989643, 
                0.023992611095309258, 
                -0.02080756425857544, 
                -0.08705413341522217, 
                0.024031050503253937, 
                0.004112500697374344, 
                -0.021927835419774055, 
                0.09251679480075836, 
                0.05110004544258118, 
                -0.049424365162849426, 
                -0.008249565027654171, 
                -0.06277403235435486, 
                0.02962016686797142, 
                0.10530664771795273, 
                0.0016375042032450438, 
                -0.04669622704386711, 
                -0.06740012764930725, 
                -0.09189444780349731, 
                -0.08310750126838684, 
                -0.10822144895792007, 
                0.01832437887787819, 
                0.01738640107214451, 
                -0.12726473808288574, 
                -0.004377287812530994, 
                -0.0436868853867054, 
                0.05207308009266853, 
                0.0843488946557045, 
                0.0415448360145092, 
                -0.03911079093813896, 
                -0.0054342905059456825, 
                -0.01187097653746605, 
                0.13357383012771606, 
                0.03861435875296593, 
                -0.012525951489806175, 
                0.1269635558128357, 
                0.0027197867166250944, 
                0.09651186317205429, 
                -0.0845506340265274, 
                -0.13934746384620667, 
                0.028166769072413445, 
                -0.0841386541724205, 
                0.006808835081756115, 
                0.10578734427690506, 
                0.09321203082799911, 
                -0.02996288239955902, 
                -0.07203949987888336, 
                0.046511512249708176, 
                -0.06617558002471924, 
                -0.06061822175979614, 
                -0.05188737064599991, 
                -0.08623281121253967, 
                -0.06343162059783936, 
                0.15859977900981903, 
                0.06945250928401947, 
                -0.09708785265684128, 
                -0.10374697297811508, 
                0.0895003080368042, 
                0.008614839054644108, 
                -0.03905336931347847, 
                -0.06984112411737442, 
                -0.09209822863340378, 
                -0.05630325525999069, 
                0.10954699665307999, 
                -0.039422448724508286, 
                0.02584550902247429, 
                -0.0501573346555233, 
                -0.040866702795028687, 
                -0.036901894956827164, 
                -0.0735330730676651, 
                0.03181310370564461, 
                0.10789130628108978, 
                0.054889701306819916, 
                -0.10433102399110794, 
                -0.03814117982983589, 
                0.10566434264183044, 
                -0.0033917210530489683, 
                -0.038648027926683426, 
                0.05389219522476196, 
                -0.006796407047659159, 
                0.1320425271987915, 
                0.09192582219839096, 
                -0.08352101594209671, 
                -0.02518884465098381, 
                0.014770369976758957, 
                -0.03599195182323456, 
                -0.13590262830257416, 
                -0.03460242226719856, 
                0.021026229485869408, 
                0.008027317002415657, 
                0.2138940691947937, 
                -0.10701163113117218, 
                -0.008736069314181805, 
                -0.1337091475725174, 
                -0.09393302351236343, 
                -0.011298037134110928, 
                -0.0013801287859678268, 
                0.04689154773950577, 
                -0.024422457441687584, 
                -0.042488716542720795, 
                -0.09604088962078094, 
                -0.012014508247375488, 
                0.04578206688165665, 
                0.04535572603344917, 
                -0.0013766131596639752, 
                -0.002078804187476635, 
                0.13384650647640228, 
                -0.028638355433940887, 
                -0.1636197566986084, 
                -0.022481685504317284, 
                0.08690866082906723, 
                -0.001684058690443635, 
                0.10104856640100479, 
                0.024252330884337425, 
                0.01485136616975069, 
                -0.07068496942520142, 
                0.03202465549111366, 
                -0.14024348556995392, 
                0.019958162680268288, 
                -0.019351087510585785, 
                -0.007134072948247194, 
                -0.06223555654287338, 
                0.0809185802936554, 
                0.0020621854346245527, 
                0.018196795135736465, 
                -0.05249342694878578, 
                0.11398249864578247, 
                0.11837983876466751, 
                0.005901095923036337, 
                -0.027329741045832634, 
                0.07051517814397812, 
                -0.1017514169216156, 
                -0.09204994142055511, 
                -0.08302906900644302, 
                -0.09174022078514099, 
                0.12802653014659882, 
                0.033459097146987915, 
                0.037005357444286346, 
                -0.2515309751033783, 
                0.13540756702423096, 
                0.09466229379177094, 
                0.003053637919947505, 
                -0.10189880430698395, 
                -0.06888187676668167, 
                -0.006784024648368359, 
                0.10135388374328613, 
                -0.011573810130357742, 
                -0.026704080402851105, 
                -0.033637117594480515, 
                0.17490018904209137, 
                0.005091262981295586, 
                -0.10609198361635208, 
                -0.1385350376367569, 
                0.022322917357087135, 
                0.04860829934477806, 
                0.03550012409687042, 
                -0.00221431371755898, 
                -0.02061939612030983, 
                0.00654907152056694, 
                0.056289538741111755, 
                -0.0189298577606678, 
                -0.12511177361011505, 
                0.10458778589963913, 
                0.04556562379002571, 
                0.07257547229528427, 
                -0.012114478275179863, 
                0.04902452230453491, 
                0.10533341765403748, 
                0.060389790683984756, 
                -0.007510804105550051, 
                -0.012035738676786423, 
                0.02703203819692135, 
                -0.015860531479120255, 
                0.05086786299943924, 
                -0.1348324716091156, 
                -0.013412064872682095, 
                0.09441152960062027, 
                0.0016371500678360462, 
                -0.028561687096953392, 
                -0.03684185445308685, 
                -0.04811684787273407, 
                -0.020484454929828644, 
                -0.030475039035081863, 
                0.008754675276577473, 
                0.023740800097584724, 
                -0.05840393155813217, 
                0.009450043551623821, 
                -0.03767290711402893, 
                -0.04367808625102043, 
                0.01159747876226902, 
                -0.051350753754377365, 
                -0.03526153042912483, 
                -0.028616057708859444, 
                -0.09519211202859879, 
                -0.008119541220366955, 
                0.023547204211354256, 
                0.04962857812643051, 
                -0.05666603520512581, 
                -0.007215782534331083, 
                0.08682981878519058, 
                0.04185844585299492, 
                0.025611428543925285, 
                0.014739329926669598, 
                0.11013032495975494, 
                0.05676286295056343, 
                0.07605364918708801, 
                -0.037099216133356094, 
                -0.01612461917102337, 
                -0.10502713918685913, 
                0.05706905573606491, 
                -0.06529509276151657, 
                0.030628658831119537, 
                -0.011052089743316174, 
                -0.03788892179727554, 
                0.06933385133743286, 
                0.06305700540542603, 
                -0.0399651974439621, 
                -0.052964553236961365, 
                -0.1152980700135231, 
                0.04159430041909218, 
                0.13617807626724243, 
                -0.1915687620639801, 
                -0.03028222545981407, 
                -0.020735548809170723, 
                0.1555202156305313, 
                0.12329955399036407, 
                -0.0053884354420006275, 
                -0.090447798371315, 
                -0.03280026838183403, 
                0.05527738481760025, 
                0.04007256403565407, 
                0.075679250061512, 
                -0.07149692624807358, 
                0.00466062081977725, 
                0.012246104888617992, 
                0.08658146858215332, 
                -0.0499710775911808, 
                -0.029016299173235893, 
                -0.0480610691010952, 
                -0.015340116806328297, 
                -0.093211829662323, 
                -0.05008380860090256, 
                -0.03861323744058609, 
                -0.1491835117340088, 
                -0.13315962255001068, 
                0.0084568215534091, 
                0.0847223699092865, 
                0.029334045946598053, 
                -0.02032286487519741, 
                0.011427158489823341, 
                -0.07973360270261765, 
                0.12350255995988846, 
                0.040805649012327194, 
                -0.06638087332248688, 
                -0.03228321671485901, 
                0.02146860957145691, 
                0.057996150106191635, 
                0.030266622081398964, 
                -0.10966687649488449, 
                -0.06111103296279907, 
                -0.00024082488380372524, 
                -0.1230032816529274, 
                0.0702286958694458, 
                -0.06415268778800964, 
                0.05274976044893265, 
                -0.03387345001101494, 
                -0.0055381436832249165, 
                -0.034258898347616196, 
                0.04486370086669922, 
                0.032567914575338364, 
                -0.02155052125453949, 
                0.03077993169426918, 
                -0.07930118590593338, 
                0.012174301780760288, 
                0.0366520881652832, 
                0.021375028416514397, 
                0.070441834628582, 
                -0.026777826249599457, 
                -0.053065408021211624, 
                -0.1224202811717987, 
                0.13063549995422363, 
                -0.07283590734004974, 
                -0.01589522697031498, 
                -0.013707885518670082, 
                -0.06865814328193665, 
                0.03408242389559746, 
                0.04319267347455025, 
                0.0284094400703907, 
                0.011530766263604164, 
                -0.10046572238206863, 
                0.07737741619348526, 
                -0.05583381652832031, 
                -0.06354930251836777, 
                -0.011242082342505455, 
                -0.07532373070716858, 
                -0.020424844697117805, 
                -0.02545803040266037, 
                -0.015314137563109398, 
                -0.06177206337451935, 
                -0.061548758298158646, 
                0.049240246415138245, 
                -0.0017623876919969916, 
                0.07149842381477356, 
                -0.07119479030370712, 
                -0.026711348444223404, 
                -0.049151401966810226, 
                -0.052317697554826736, 
                0.016863171011209488, 
                -0.10681622475385666, 
                -0.09875061362981796, 
                -0.09002093225717545, 
                -0.036594144999980927, 
                -0.06858794391155243, 
                -0.0910521149635315, 
                0.01817524991929531, 
                0.11535491049289703, 
                -0.09241357445716858, 
                0.04497818648815155, 
                0.027474375441670418, 
                -0.08617401868104935, 
                -0.05027318745851517, 
                0.02806008979678154, 
                0.08198373019695282, 
                0.00632185023277998, 
                -0.1219085156917572, 
                0.05597003549337387, 
                0.02584885247051716, 
                -0.029235078021883965, 
                0.0988939106464386, 
                0.10836618393659592, 
                -0.00017122758436016738, 
                0.0147858252748847, 
                -0.02611519955098629, 
                0.05385622754693031, 
                0.10048528760671616, 
                -0.06331542879343033, 
                0.059502966701984406, 
                0.03765084967017174, 
                0.1362045407295227, 
                -0.08259756118059158, 
                0.07285252213478088, 
                0.07308229804039001, 
                -0.0723118856549263, 
                -0.019167989492416382, 
                -0.010538298636674881, 
                0.051716405898332596, 
                -0.02664409577846527, 
                -0.13036803901195526, 
                -0.013259782455861568, 
                -0.12192970514297485, 
                0.037232011556625366, 
                0.034677904099226, 
                0.09256846457719803, 
                0.015409491956233978, 
                0.08745153248310089, 
                -0.04361770302057266, 
                -0.004100133199244738, 
                -0.06153332069516182, 
                -0.08786642551422119, 
                -0.04664061591029167, 
                -0.006492908578366041, 
                -0.14526481926441193, 
                -0.044505517929792404, 
                -0.07950152456760406, 
                -0.027211902663111687, 
                0.10356944799423218, 
                -0.08464343845844269, 
                -0.07694151252508163, 
                0.034144800156354904, 
                0.045619670301675797, 
                -0.024209879338741302, 
                0.19604860246181488, 
                0.00022867260850034654, 
                -0.06959227472543716, 
                0.029787342995405197, 
                -0.07765669375658035, 
                0.07642799615859985, 
                0.05542393773794174, 
                -0.02531806007027626, 
                -0.0038293548859655857, 
                0.06111210212111473, 
                -0.16304466128349304, 
                -0.02480018511414528, 
                0.0037104233633726835, 
                -0.045432813465595245, 
                0.12292072176933289, 
                -0.026795482262969017, 
                -0.07581416517496109, 
                0.012100455351173878, 
                -0.03363806754350662, 
                1.2181029887869954e-05, 
                -0.002566223731264472, 
                0.059276361018419266, 
                0.009676000103354454, 
                -0.03793872147798538, 
                0.050137538462877274, 
                0.09454906731843948, 
                0.11011522263288498, 
                -0.01385905034840107, 
                -0.014927573502063751, 
                0.08226268738508224, 
                0.08304298669099808, 
                0.09930742532014847, 
                0.08187445998191833, 
                -0.023532439023256302, 
                -0.009242376312613487, 
                -0.09725555777549744, 
                -0.09250421077013016, 
                -0.13939061760902405, 
                0.005272462032735348, 
                -0.020880380645394325, 
                -0.04901028051972389, 
                -0.015020680613815784, 
                0.08326472342014313, 
                0.04156701639294624, 
                0.08573918044567108, 
                0.04939988628029823, 
                -0.06272494047880173, 
                0.025090618059039116, 
                0.11790763586759567, 
                0.08482638001441956, 
                0.0788763239979744, 
                -0.005087276455014944, 
                -0.16766884922981262, 
                0.04301537200808525, 
                0.10134225338697433, 
                -0.03203456848859787, 
                -0.032899755984544754, 
                0.05902353301644325, 
                -0.06442806124687195, 
                -0.05762801319360733, 
                -0.14325793087482452, 
                0.05057286471128464, 
                -0.029649576172232628, 
                -0.09840770810842514, 
                0.01847650110721588, 
                0.10121654719114304, 
                -0.07872454822063446, 
                0.010779980570077896, 
                0.08771216124296188, 
                0.07931160181760788, 
                0.06929284334182739, 
                -0.17391470074653625, 
                -0.06783141940832138, 
                -0.014626740477979183, 
                -0.047333016991615295, 
                0.04940337315201759, 
                0.03874378278851509, 
                -0.05583464726805687, 
                0.033423397690057755, 
                0.11179192364215851, 
                0.10507156699895859, 
                0.12794575095176697, 
                -0.043899621814489365, 
                0.04789004102349281, 
                0.0761011615395546, 
                0.09694897383451462, 
                0.0057157850824296474, 
                0.1482824832201004, 
                0.10213395208120346, 
                -0.0018860956188291311, 
                -0.11730010062456131, 
                0.05099213123321533, 
                -0.06576639413833618, 
                -0.026284774765372276, 
                0.02362281084060669, 
                0.04256018251180649, 
                -0.009183544665575027, 
                -0.001458528102375567, 
                0.024382539093494415, 
                -0.12351232022047043, 
                -0.030035555362701416, 
                0.04830649495124817, 
                -0.07078461349010468, 
                -0.012862966395914555, 
                0.020482033491134644, 
                0.043071165680885315, 
                0.0695568323135376, 
                -0.14119090139865875, 
                -0.10558891296386719, 
                0.07233784347772598, 
                -0.00295533100143075, 
                0.07097616046667099, 
                -0.05252230539917946, 
                -0.103528693318367, 
                -0.06982637941837311, 
                0.010435161180794239, 
                0.1080486848950386, 
                -0.09145955741405487, 
                -0.03711482882499695, 
                0.043284736573696136, 
                0.016155922785401344, 
                0.11088808625936508, 
                0.0264756977558136, 
                -0.006475076545029879, 
                -0.18498672544956207, 
                0.03053244762122631, 
                -0.036681778728961945, 
                0.010782758705317974, 
                -0.022285277023911476, 
                -0.029545793309807777, 
                -0.08760956674814224, 
                -0.029129184782505035, 
                0.026391029357910156, 
                -0.045351676642894745, 
                0.0538259893655777, 
                -0.013941782526671886, 
                -0.02645098604261875, 
                -0.21756166219711304, 
                0.005540311336517334, 
                -0.04326082766056061, 
                0.040475644171237946, 
                -0.007173578254878521, 
                0.04318077117204666, 
                0.08969622850418091, 
                0.05286954715847969, 
                0.060581840574741364, 
                0.03534011170268059, 
                -0.10601413995027542, 
                0.04076310247182846, 
                -0.04727183282375336, 
                0.013175825588405132, 
                -0.0580463707447052, 
                -0.06409423053264618, 
                -0.03811364248394966, 
                -0.02187516912817955, 
                0.07636026293039322, 
                0.046190500259399414, 
                -0.0077093481086194515, 
                -0.007753016892820597, 
                0.026712827384471893, 
                -0.023506827652454376, 
                0.027361847460269928, 
                -0.01786554604768753, 
                -0.06033476069569588, 
                -0.07166213542222977, 
                -0.02037598006427288, 
                0.0041422173380851746, 
                0.13493993878364563, 
                0.1083158627152443, 
                0.04166064038872719, 
                0.0031654853373765945, 
                -0.014454804360866547, 
                0.009954734705388546, 
                -0.02769976109266281, 
                -0.04670332372188568, 
                0.06284463405609131, 
                0.057365212589502335, 
                0.07773400098085403, 
                0.0654885545372963, 
                -0.012460697442293167, 
                -0.10682360827922821, 
                -0.04648815467953682, 
                0.07464567571878433, 
                -0.021673638373613358, 
                -0.1609732061624527, 
                -0.14489056169986725, 
                -0.027175061404705048, 
                0.00746338302269578, 
                -0.12573960423469543, 
                0.14871090650558472, 
                0.10144052654504776, 
                0.012259220704436302, 
                0.03919858857989311, 
                0.06556222587823868, 
                -0.02637055702507496, 
                0.022509386762976646, 
                -0.0012992180418223143, 
                0.025750767439603806, 
                -0.06167568266391754, 
                -0.02003677934408188, 
                -0.08826211094856262, 
                -0.04015053063631058, 
                -0.04143935814499855, 
                0.03790493309497833, 
                0.045804236084222794, 
                0.01664401777088642, 
                -0.04643074423074722, 
                -0.0504809133708477, 
                -0.06781838834285736, 
                0.11320886760950089, 
                0.10419655591249466, 
                0.02918936312198639, 
                -0.17589735984802246, 
                0.05463309586048126, 
                -0.08193984627723694, 
                -0.12091776728630066, 
                -0.07827145606279373, 
                0.019231047481298447, 
                0.09975116699934006, 
                -0.059323038905858994, 
                0.037400439381599426, 
                -0.08448413759469986, 
                0.0411224290728569, 
                0.06793314218521118, 
                0.0028878189623355865, 
                -0.015356147661805153, 
                0.07663443684577942, 
                0.005687544587999582, 
                -0.054107118397951126, 
                -0.11378896236419678, 
                -0.08611149340867996, 
                -0.04320523887872696, 
                -0.07947693765163422, 
                -0.06879366189241409, 
                -0.1733299195766449, 
                -0.024143146350979805, 
                0.06534875929355621, 
                0.0897853672504425, 
                -0.0905940979719162, 
                0.011519741266965866, 
                0.07355441153049469, 
                -0.011908356100320816, 
                0.05481506511569023, 
                -0.06445995718240738, 
                0.03410374000668526, 
                0.024001160636544228, 
                -0.007958806119859219, 
                -0.023273352533578873, 
                0.13280194997787476, 
                0.10040122270584106, 
                0.03693920373916626, 
                0.06398668140172958, 
                0.03661542013287544, 
                0.11325579136610031, 
                0.01322780642658472, 
                0.09814666211605072, 
                0.04592393338680267, 
                0.04563303664326668, 
                0.00435250299051404, 
                0.09046882390975952, 
                0.07391947507858276, 
                -0.023694409057497978, 
                -0.04161641374230385, 
                -0.07282325625419617, 
                -0.10868456959724426, 
                0.006294247228652239, 
                -0.013554970733821392, 
                -0.07472500205039978, 
                0.004195446148514748, 
                -0.007607900537550449, 
                0.03666142001748085, 
                0.04622584208846092, 
                0.02064437046647072, 
                0.03135792165994644, 
                0.01912285014986992, 
                0.053202174603939056, 
                0.09047353267669678, 
                -0.1451384574174881, 
                -0.0030837326776236296, 
